digraph Tree {
node [shape=box] ;
0 [label="Petal.Length <= 2.45\nentropy = 1.584\nsamples = 115\nvalue = [39, 40, 36]"] ;
1 [label="entropy = 0.0\nsamples = 39\nvalue = [39, 0, 0]"] ;
0 -> 1 [labeldistance=2.5, labelangle=45, headlabel="True"] ;
2 [label="Petal.Length <= 4.85\nentropy = 0.998\nsamples = 76\nvalue = [0, 40, 36]"] ;
0 -> 2 [labeldistance=2.5, labelangle=-45, headlabel="False"] ;
3 [label="Petal.Width <= 1.65\nentropy = 0.292\nsamples = 39\nvalue = [0, 37, 2]"] ;
2 -> 3 ;
4 [label="entropy = 0.0\nsamples = 36\nvalue = [0, 36, 0]"] ;
3 -> 4 ;
5 [label="entropy = 0.918\nsamples = 3\nvalue = [0, 1, 2]"] ;
3 -> 5 ;
6 [label="Petal.Width <= 1.75\nentropy = 0.406\nsamples = 37\nvalue = [0, 3, 34]"] ;
2 -> 6 ;
7 [label="entropy = 0.985\nsamples = 7\nvalue = [0, 3, 4]"] ;
6 -> 7 ;
8 [label="entropy = 0.0\nsamples = 30\nvalue = [0, 0, 30]"] ;
6 -> 8 ;
}